0,1,2,3,4,5,6,7,8,9,10,11,12,13,14,15,16,17,18,19,20,21,22,23,24,25,26,27,28,29,30,31,32,33,34,35,36,37,38,39,40,41,42,43,44,45,46,47,48,49,50,51,52,53,54,55,56,57,58,59,60,61,62,63,64,65,66,67,68,69,70,71,72,73,74,75,76,77,78,79,80,81,82,83,84,85,86,87,88,89,90,91,92,93,94,95,96,97,98,99,100
ultimately,0.45483,-0.10228999999999999,0.35265,0.16507,0.33391,-0.033643,0.00043911,-0.09316,0.60292,-0.26628,0.30135,0.45863999999999994,0.049518,-0.28523000000000004,-0.244,-0.81647,0.020544999999999997,0.37938,-0.30024,0.58697,0.21624000000000002,-0.76569,0.20397,-0.45083999999999996,-0.17138,0.2191,-0.46433,-0.38544,0.29181999999999997,-0.36911,0.31478,0.9538399999999999,-0.53598,-0.42941999999999997,-0.12487000000000001,-0.33758,0.12005,-0.30765,-0.28244,-0.20289000000000001,-0.5070600000000001,-0.23463,-0.10309000000000001,-0.34185,-0.10497000000000001,-0.22595,0.6494300000000001,0.022811,0.098427,-0.6514,0.17989000000000002,-0.26682,0.23309000000000002,0.9380799999999999,0.5323399999999999,-1.7329,0.048211000000000004,-0.33657,0.73172,0.41606000000000004,-0.13993,0.20463,0.19919,-0.14692,0.9921,-0.26823,-0.23096999999999998,0.37569,-0.36863,-0.5128,0.6241800000000001,-0.23489000000000002,-0.37845,0.3197,-0.022897999999999998,-0.20289000000000001,-0.28811,-0.074336,-0.63241,0.43812,-0.10917,0.56707,-0.74671,-0.11282,-1.607,-0.37444,0.11084000000000001,-0.32942,-0.182,-0.26932,-0.35214,-0.47388,-0.19255999999999998,0.2763,-0.053913,0.34036,0.23723000000000002,0.054277,0.10977,0.18678
want,-0.17124,0.56447,0.34667,-0.56711,-0.65675,0.12080999999999999,-0.76863,0.07283200000000001,0.42236999999999997,-0.10464000000000001,-0.095098,0.35531,0.37523,-0.10315,-0.36373,-0.34235,0.15420999999999999,0.42595,-0.93621,0.76463,0.22935999999999998,0.39153000000000004,0.048629,-0.63902,-0.27605999999999997,0.14309000000000002,-0.1457,-0.9260299999999999,0.7366199999999999,-0.47586000000000006,0.16671,0.87328,0.043905,-0.0021803,0.6098100000000001,0.18375999999999998,0.17213,0.24313,0.31518,-0.49676000000000003,-0.3441,-0.18997999999999998,0.1418,-1.0103,-0.6809,-0.16667,-0.038716,-0.22746999999999998,-0.20992,-1.2806,-0.013947,0.025616000000000003,-0.43727,0.80019,-0.051486000000000004,-2.2276,0.23601,0.15772,1.5965,0.14865,-0.082737,0.70406,-0.8324799999999999,-0.46889,1.2773,0.41736,0.64693,0.78081,-0.59024,-0.52525,0.39025,-0.55992,-0.29066,-0.8870899999999999,-0.18135,0.22910999999999998,-0.14212,0.036706,-0.49487,-0.11899000000000001,0.44098999999999994,-0.42423999999999995,-0.4791,-0.093485,-1.5978,-0.19971,0.099788,0.32889,-0.29564,-0.43231,-0.013218,-0.20853000000000002,0.052186,-0.86911,-0.85816,-0.23443000000000003,0.057799,0.03115,0.48789,0.69311
turn,-0.08525,0.021085,0.30965,-0.17603,0.088869,0.28505,-0.34456,0.11395999999999999,0.29212,-0.24502,0.06139,0.38997,0.18469000000000002,0.028075,0.22511,-0.15325,0.060844,0.27098,-0.12833,0.16555,0.5044,-0.18684,0.10818,-0.37488,-0.029563,0.06188300000000001,-0.45121999999999995,-0.18225,0.64018,-0.45381000000000005,0.16264,0.8412200000000001,-0.13373,-0.15338,-0.36222,0.16792,0.08961799999999999,-0.2956,0.12397999999999999,0.022515,-0.74854,-0.5522,-0.17269,-0.61936,-0.18006,0.0055753,0.038751999999999995,0.16569,0.21308000000000002,-0.8941,-0.30299,-0.013611000000000002,-0.11634000000000001,1.1493,0.20174,-2.3823,-0.4215,0.23959,1.4696,-0.12155,0.011755,0.8243,-0.01151,-0.035935,0.9115200000000001,-0.069714,0.10132999999999999,0.13302999999999998,-0.39529000000000003,-0.37805,0.13681,-0.32911999999999997,-0.24245,-0.35115,0.077007,-0.22330999999999998,-0.41275,-0.072486,0.080583,0.14190999999999998,0.65754,0.19384,-0.9028,-0.033123,-1.246,-0.42368999999999996,0.21779,-0.013447999999999998,0.12384,-0.33401,-0.22737,0.11364,-0.23705,-0.31440999999999997,-0.43231,-0.10549000000000001,0.14866,-0.24256,0.47029,0.2342
text,-0.49705,0.71642,0.40119,-0.05761,0.83614,0.8256,0.08963,-0.53492,0.34335,-0.27079000000000003,-0.011152,0.025207,-0.1235,0.11800999999999999,0.045312,0.73144,0.13744,-0.13084,-0.028249,-0.30789,-0.8186399999999999,-0.5451699999999999,0.25151,0.53891,0.38293,-1.0343,-0.1104,0.44977,-0.13019,0.24846999999999997,0.1048,0.19567,-0.42672,-0.37911999999999996,0.14535,-0.025532,-0.23523000000000002,-0.3638,-0.14269,0.0062071999999999995,-0.63,-0.23068000000000002,0.086461,0.22125999999999998,-0.65625,-0.55701,-0.60243,-0.13159,-0.027226,0.0044152,1.4123,1.3042,0.54118,0.33443,-0.51865,-1.8253,-0.30525,-0.32747,1.236,0.08771,0.0077930000000000004,0.36571,-0.39304,-0.79174,0.5787399999999999,-0.0025427,0.10442,0.64166,-0.1881,-0.76203,0.23008,0.30637,1.0386,-0.6984600000000001,0.31094,0.63762,-0.09997,0.16999,-0.5998399999999999,-0.89565,-0.25059000000000003,-0.93011,-0.59606,-0.32965,-1.6828,0.39102,0.65383,-1.5176,0.61748,0.0075596000000000005,0.040066000000000004,0.6080300000000001,-0.027058,0.15273,-0.16887,-0.47663999999999995,-0.61775,-0.98735,0.23776,0.39952
matrix,-0.26638,0.44491,0.32743,0.43459,0.10528,0.31703000000000003,-0.34503,0.18147,-0.14878,0.8489700000000001,0.4721,-1.1558,0.099759,0.062035,0.47041000000000005,1.0013,0.018791,1.311,1.3388,-0.50075,0.32534,-0.84829,-0.40881999999999996,-0.18405,0.71325,0.03127,1.9998,0.59029,-0.21204,-0.44343,0.68245,0.9443799999999999,-0.11900000000000001,-0.32573,1.083,0.20224,0.9864,0.44538,0.23942,-0.9146200000000001,0.32708000000000004,0.036551,-0.091388,-0.4554,-0.41849,0.5451,-0.5648,0.12675999999999998,-0.29724,0.39565,0.43511000000000005,-0.83701,0.10056,0.81198,0.07657,-0.50079,-0.6392399999999999,0.25515,0.56498,0.26425,-0.29231999999999997,0.2291,-0.23567,0.52685,1.6412,0.22546,0.9909899999999999,-0.08301900000000001,0.8046,0.14957,-0.18681,0.29335,-0.15312,-0.43332,0.36968,-1.0212,0.046447,-0.061121,-0.30038000000000004,-0.32563000000000003,-0.34144,0.47618,-0.8345,-0.047333,-0.35806,0.67309,0.66781,-0.92899,-0.13483,-0.27055999999999997,-1.1066,0.35388000000000003,-0.26355,0.59609,1.1334,-1.1025,0.77682,-0.17267000000000002,-0.5372600000000001,0.158
gives,-0.13883,0.43859,0.90736,0.18993,0.16446,0.09245700000000001,-0.5976,0.20403,-0.08784299999999999,-0.69825,0.006429600000000001,-0.43001000000000006,-0.12532000000000001,0.095026,0.049545,0.44093999999999994,-0.13621,-0.064874,0.14593,1.1466,-0.30323,-0.66333,-0.3803,-0.29889,0.18087,0.10117999999999999,-0.36877,-0.41918,-0.17770999999999998,-0.7176600000000001,0.011742,1.0009,-0.15575,-0.20709,-0.020822,0.21161999999999997,0.11556,0.1792,-0.29836999999999997,-0.1059,-0.13289,-0.33339,0.40854,-0.4952,-0.37035999999999997,-0.42285,-0.30787,-0.11210999999999999,0.055230999999999995,-0.034941,0.09574500000000001,-0.040563,0.048479,0.8327600000000001,0.21600999999999998,-2.4077,0.10075,-0.39374000000000003,1.1638,-0.093043,0.39343,0.29236999999999996,0.094109,-0.073768,0.58727,0.13167,0.12322999999999999,0.14800000000000002,-0.1162,0.13102,0.092761,-0.18946,0.057981,-0.11184000000000001,0.82688,0.29814,-0.090513,-0.7773800000000001,-0.72309,-0.33205999999999997,0.30809000000000003,-0.26272,-0.79581,-0.53236,-0.87669,0.102,0.16539,-0.0047212,0.59704,-0.20595,0.034601,-0.34646,0.15124,-0.58086,-0.060052,-0.18331,-0.06448,-0.3487,-0.055002999999999996,0.6904399999999999
algorithm,-1.0277,0.1329,-0.28398,0.2524,0.48291999999999996,-0.091038,-0.10062,0.11197,0.35764,0.010256999999999999,0.5039600000000001,0.20203,-0.2879,-0.85098,0.33241,0.77795,0.16109,0.90305,0.82558,0.17397,-0.31073,-0.94832,0.3147,-0.15424000000000002,0.034335000000000004,-0.13926,0.53697,-0.40455,-0.8048,-0.52849,-0.44411000000000006,1.0390000000000001,-0.28768,-0.16764,0.9940100000000001,0.83965,-0.6394,-0.22941999999999999,0.86145,-0.6172,0.059358,0.53428,-0.38723,-0.21375999999999998,-0.64295,0.33081,0.029107,-0.44358000000000003,0.006596600000000001,0.54475,0.034964,-0.6067,0.97129,1.3028,-0.31711,-0.4238,-0.43621000000000004,0.50462,-0.23374,0.13405999999999998,-0.32072,-1.0733,0.23698000000000002,0.41058,1.1079,-0.013616,-0.77191,-0.73458,0.30293000000000003,0.09415499999999999,-1.0742,0.41231999999999996,-0.3813,-0.28588,0.9983299999999999,-0.49683,-0.21374,-0.72648,-0.58189,0.33436,0.16460999999999998,0.15808,-1.5266,-0.74155,-0.69034,1.61,0.75529,-0.9008799999999999,-0.62141,-0.044536,-1.0257,0.81171,-0.55064,0.95468,0.59529,-0.77168,0.12721,-0.96225,-0.046613999999999996,0.268
information,-0.41463999999999995,-0.024021999999999998,0.69038,-0.16917000000000001,0.53466,-0.32578,-0.30617,-0.43133999999999995,0.6823199999999999,-0.14584,0.96716,0.010579,0.13908,-0.11725,0.5544100000000001,0.32449,0.8663200000000001,-0.35831,-0.8094399999999999,0.29462,-0.8237399999999999,-0.36054,0.6543,-0.40186,-1.0906,-0.28781,0.74878,0.12370999999999999,-0.4749,0.058669000000000006,0.19408,0.52256,-0.68032,0.11185,0.014003,-0.091424,-0.41768999999999995,0.6006100000000001,-0.31572,-0.1572,-0.28079,-0.24416,-0.50088,-0.38711999999999996,-0.40294,-0.23301999999999998,-0.24606999999999998,-0.26591,0.052459000000000006,-0.51935,1.2673,0.32769000000000004,0.31686,0.8901899999999999,0.14828,-1.4152,0.13825,-0.10252,2.6421,0.24993,-0.62259,0.68818,0.076016,-0.35118,0.7255699999999999,-0.37385999999999997,0.5493100000000001,0.14937,1.1453,0.57868,-0.4066,-0.28071999999999997,0.51556,-1.2488,0.55752,0.37994,0.27854,-0.16695,-1.6687,-0.28786,0.99649,0.38067,-0.30222,-0.30318,-1.6912,-0.033104,0.7471300000000001,0.007480800000000001,-0.050720999999999995,-0.0013296,0.16473,0.23013000000000003,0.12429000000000001,-0.38695999999999997,0.083726,0.015447,0.36349000000000004,-0.88175,0.44565,0.40437
categorize,-0.8683700000000001,0.156,-0.1124,0.2171,-0.4332,0.40199,-0.26592,-0.51682,0.82521,0.42336,-0.049698,-0.19195,0.15982000000000002,-0.6692899999999999,0.28319,0.6348,0.57091,0.13185,-0.22045,0.52098,-0.21506999999999998,-0.18057,0.36445,-0.18980999999999998,-0.6936,-0.50705,-0.28864,-0.12030999999999999,0.5595399999999999,-0.5310600000000001,-0.10074,0.019861,-0.59386,-0.18574000000000002,-0.10572000000000001,0.08654099999999999,-0.12725999999999998,-0.025869999999999997,0.15607000000000001,-0.60327,-0.18709,0.51868,-0.6249,-0.13514,-1.1467,0.5998100000000001,0.37006,-0.30148,-0.62027,0.0011181,-0.10407999999999999,0.20155,0.24841999999999997,0.20428,-0.30196999999999996,0.63063,0.56667,0.18051,0.18773,-0.029957,-0.31225,0.5642199999999999,0.41103,0.23889000000000002,0.33662,-0.010662,0.8232,0.46076999999999996,0.37082,-0.5773199999999999,-0.05438099999999999,-0.10347,0.25309,0.2257,-0.020411000000000002,-0.5905100000000001,-0.36327,-0.44897,0.15032,-0.58694,-0.28507,-0.061665,-0.37376,0.38244,-0.38689,0.09577000000000001,-0.15394000000000002,0.021856999999999998,-1.0514,0.40183,-0.29922,0.48773,-0.25024,-0.8455,0.36699,-0.15394000000000002,-0.33396,-0.13075,-0.036386,0.02118
text,-0.49705,0.71642,0.40119,-0.05761,0.83614,0.8256,0.08963,-0.53492,0.34335,-0.27079000000000003,-0.011152,0.025207,-0.1235,0.11800999999999999,0.045312,0.73144,0.13744,-0.13084,-0.028249,-0.30789,-0.8186399999999999,-0.5451699999999999,0.25151,0.53891,0.38293,-1.0343,-0.1104,0.44977,-0.13019,0.24846999999999997,0.1048,0.19567,-0.42672,-0.37911999999999996,0.14535,-0.025532,-0.23523000000000002,-0.3638,-0.14269,0.0062071999999999995,-0.63,-0.23068000000000002,0.086461,0.22125999999999998,-0.65625,-0.55701,-0.60243,-0.13159,-0.027226,0.0044152,1.4123,1.3042,0.54118,0.33443,-0.51865,-1.8253,-0.30525,-0.32747,1.236,0.08771,0.0077930000000000004,0.36571,-0.39304,-0.79174,0.5787399999999999,-0.0025427,0.10442,0.64166,-0.1881,-0.76203,0.23008,0.30637,1.0386,-0.6984600000000001,0.31094,0.63762,-0.09997,0.16999,-0.5998399999999999,-0.89565,-0.25059000000000003,-0.93011,-0.59606,-0.32965,-1.6828,0.39102,0.65383,-1.5176,0.61748,0.0075596000000000005,0.040066000000000004,0.6080300000000001,-0.027058,0.15273,-0.16887,-0.47663999999999995,-0.61775,-0.98735,0.23776,0.39952
difficult,-0.7578,-0.1175,0.17357999999999998,0.37446999999999997,-0.78754,-0.44833999999999996,-0.50039,0.087245,0.23401,-0.012345,0.29594000000000004,-0.043807,0.10290999999999999,-0.60423,-0.33494,-0.17373,-0.10630999999999999,-0.096489,-0.22841999999999998,0.29912,0.19005,0.004368899999999999,0.36473,-0.15962,-0.25493000000000005,-0.17868,-0.52857,-0.58882,0.06012000000000001,-0.016169,-0.67676,-0.09177,0.05468200000000001,-0.65373,0.49046999999999996,0.29982,-0.40943,-0.032608,0.24011999999999997,-0.26605999999999996,-0.41956000000000004,0.18494000000000002,0.1484,-0.35749000000000003,-0.76446,-0.095023,0.96593,0.12272000000000001,-0.31475,-0.5209199999999999,0.39725,-0.32365,0.17565999999999998,1.2764,0.73993,-2.3208,0.32656999999999997,-0.024733,1.5983,0.40175,-0.4875,0.6363,-0.035824,-0.20288,0.90115,-0.14219,0.48008,0.23949,0.12967,-1.0379,-0.15971,-0.31279,-0.061770000000000005,0.17973,0.7770199999999999,-0.33118000000000003,-0.78517,-0.021534,-0.36486999999999997,0.11717000000000001,0.71787,0.42556000000000005,-0.73315,-0.097714,-2.0283,-0.1481,0.08987300000000001,0.16549,-0.754,-0.3694,-0.17314000000000002,0.34485,-0.24836999999999998,-0.13118,-0.29111,0.36451,-0.39648,-0.070525,-0.007182399999999999,0.26125
miss,0.02893,-0.46821999999999997,0.2367,-0.50753,0.031226999999999998,0.1179,0.083959,1.305,-0.10777,-0.44359,-0.090442,-0.53932,0.10912999999999999,-0.096336,-0.43649,0.050192,-0.09136699999999999,0.83447,-0.31833,1.1292,-0.3089,0.27726,0.20306,0.70829,0.5421600000000001,0.42273999999999995,-0.27337,-1.0732,0.77889,-0.26875,0.071493,0.44803000000000004,0.74892,-0.32795,0.3944,-0.17874,-0.26944,0.44322,-0.60534,0.025391999999999998,-0.65265,0.18999000000000002,0.082344,-0.34581,-0.069987,0.94968,0.47468999999999995,-0.19099000000000002,-0.060141999999999994,-0.47323999999999994,-0.25758000000000003,0.73674,0.27066999999999997,-0.31471,0.030217,-2.3685,-0.17777,-0.06251799999999999,0.50943,0.31405,-0.47943,0.919,-0.76331,-0.068369,0.19251,0.18762,0.14922,0.43215,-0.46745,-0.038997000000000004,0.34608,0.02936,0.18473,0.55225,0.11163,0.63338,0.060851999999999996,-0.40879,0.012683,0.12428,-0.023403999999999998,-0.19355999999999998,0.089917,-0.21034,-1.0868,-0.83826,-0.47748,0.33068000000000003,0.54194,-0.54181,-0.055095000000000005,0.40435,0.51041,0.3443,-0.75625,0.092101,0.013236000000000001,0.07181,-0.5709,-0.24714
words,0.072607,0.7088899999999999,0.42583000000000004,-0.056344000000000005,-0.27468000000000004,1.0245,-0.34179,-0.8024399999999999,-0.17076,-0.34955,-0.033893,0.15975,0.11722,0.46308,-0.21898,-0.11145,-0.25906,-0.16977,-0.6176699999999999,-0.25274,0.67205,-0.22908,-0.15565,0.008556,0.22689,-0.13908,-0.054157000000000004,0.10742,0.23514000000000002,-0.08914,0.14436,0.79394,-0.5713600000000001,-0.25193000000000004,-0.39158000000000004,-0.13934000000000002,-0.38139,-0.094135,0.26056999999999997,0.077475,-0.14822000000000002,-0.41463999999999995,0.0025563,0.044005,-0.77818,-0.15953,-0.061808,-0.39439,-0.52755,-0.62012,0.71911,-0.010981999999999999,1.1115,0.80687,-0.31538,-1.6293,0.033266000000000004,-0.063853,0.61646,-0.10547000000000001,0.3589,1.4457,-0.46421,-0.7558699999999999,0.64232,-0.16544,0.90204,0.15494000000000002,-0.028529000000000002,-0.74347,-0.5755600000000001,0.42777,0.12495999999999999,-0.93405,0.71049,0.51595,-0.014972999999999998,0.43813,-0.54513,-0.14966,0.01321,-1.4461,-0.50183,-0.7789,-1.8105,0.43226000000000003,-0.21408000000000002,-0.67476,0.5673,-0.37571,-0.306,0.63,0.11220999999999999,0.37959,-0.46608,-0.030273,-0.8495299999999999,-0.46243999999999996,-0.2651,0.5755899999999999
due,-0.38090999999999997,-0.39921,0.36298,0.38955,-0.47161000000000003,-0.6240100000000001,-0.46884,0.44453000000000004,-0.0021434,-0.071924,-0.27513000000000004,0.1762,0.85769,-0.34676,0.45441000000000004,-0.6412899999999999,-0.23765,-0.01052,0.14712,-0.014953,-0.27536,-0.59454,0.3202,0.81088,0.27804,-0.11713,0.14079,-0.4155,0.569,0.45848999999999995,-0.13614,-0.07399800000000001,-0.5041399999999999,-0.17176,-0.45525,0.45893999999999996,0.44087,0.19897,-0.67165,0.14302,-0.5003,-0.11499000000000001,0.23487,0.022082,0.75274,-0.08659,0.38118,-0.19116,0.30632,-0.9548399999999999,0.46265,-0.16322,0.31705,0.95647,0.33894,-2.5745,-0.3983,-0.6503,1.9305,0.25376,-0.37126,0.53269,-0.55988,0.17556,0.84373,-0.19399,-0.043265,-0.64074,0.49327,-0.56457,-0.77037,-0.19492,-0.050214999999999996,0.025869,0.12057000000000001,-0.0044831,-0.32944,0.31881,-0.9566399999999999,0.27967,0.5705399999999999,-0.26358000000000004,-0.30308,0.16365,-1.2611,-0.39923000000000003,-0.13475,0.089142,-0.55023,-0.16943,-0.58903,-0.070594,-0.5775399999999999,0.8034600000000001,-0.27138,0.34169,-0.046245999999999995,-0.066712,0.78722,-0.9540000000000001
case,0.41052,0.058649,0.28515,-0.099504,0.076813,0.15387,0.36206,-0.10112,0.093865,-0.23309000000000002,-0.13663,0.54577,0.0138,0.38415,-0.39695,0.16228,0.099602,0.24988000000000002,-0.33659,0.039019,0.33905,-0.66241,0.37472,0.21631,0.16885999999999998,0.18165,0.55425,-0.6101,-0.8522700000000001,0.36984,0.6891,0.45316000000000006,0.082091,0.10839000000000001,-0.24239000000000002,0.15888,0.11656,-0.060652,0.57618,-0.3042,-0.65261,-0.38063,0.58332,-1.0504,-0.095388,0.014547,0.59942,-0.55361,0.17132,-0.6945100000000001,0.99215,-0.39131,0.31876,1.1508,-0.5727899999999999,-1.8148,-0.39404,-0.5783,1.9226,0.59717,-0.76435,0.5946600000000001,0.28298,-0.25469,1.4569,-0.41196000000000005,0.43956999999999996,0.74745,-0.67474,0.43792,-0.0045149,-0.03932,-0.03232,0.18805,0.73553,0.14875,-0.066224,-0.56274,-0.92785,0.22184,0.81973,0.0065571,-0.046961,-0.31358,-1.5983,-0.52369,-0.016562,0.094486,-0.15641,-0.66476,-0.14292,-0.47557,-0.44785,0.10048,1.1182,0.5413600000000001,-0.030505,-0.37898000000000004,0.33021,-0.27462
punctuation,0.66072,0.74273,-0.067239,0.051737,-0.54002,0.64322,-0.7136100000000001,-0.5479,-0.15256,0.57328,-1.0072,0.26509,0.15405,0.6698,0.5536399999999999,0.33771999999999996,-0.1525,0.0017599,0.1801,-0.23351999999999998,0.07798,-0.23363,-0.30723,0.01516,1.3995,-0.75226,0.22955,-0.014830000000000001,-0.5004,-0.58286,-0.10993,0.49558,-0.18011,-0.036022000000000005,-0.60802,-0.30913,-0.15374000000000002,-0.42758,-0.28693,-0.15591,0.68065,0.046149,-0.40337,0.48741999999999996,-0.80407,0.3485,0.41297,-0.43588000000000005,-0.56738,0.062748,0.7725,-0.43068999999999996,-0.29146,0.51193,-0.74962,0.22305,-0.058085000000000005,0.057901999999999995,0.044162,0.15693,-0.15774000000000002,0.23467,-0.38497,0.44955,-0.0060331000000000004,-0.9248799999999999,0.33279000000000003,0.022246000000000002,0.012785,-0.6977899999999999,-1.4713,-0.06225700000000001,0.38869000000000004,-0.037136,0.97869,0.32191,0.069926,0.63513,0.13717000000000001,-0.21694000000000002,-0.62439,-1.2189,-0.27355999999999997,-0.5855199999999999,-1.2842,0.9073200000000001,-0.21958000000000003,-0.56453,0.16973,0.48438000000000003,-0.87072,0.94211,-0.044258,0.25445,-0.22061,-0.47938000000000003,0.35520999999999997,-0.58254,-0.8216100000000001,0.61016
common,-0.21028000000000002,0.71205,0.38301999999999997,0.28301,0.056311,0.018544,-0.094069,-0.56188,0.01212,-0.08295,-1.1934,-0.34129,0.37237,0.62108,0.24494000000000002,-0.30245,0.017338,-0.20248,-0.40166,-0.11364,0.10561,-0.32799,0.29568,0.13978,0.35362,-0.025882,0.30219,-0.52062,-0.54385,0.375,0.15784,0.7327,-0.038845,-0.35941,0.66166,0.38688,0.18103,-0.12359,0.81587,0.031975,-0.24265,-0.12955,0.19998,-0.40885,-0.15014,0.37412,0.48327,0.12555,-0.94652,-0.61997,0.35302,-0.037146,-0.086757,0.67132,-0.29295,-1.8341,0.28691,-0.33282,1.6753,0.075936,-0.099551,0.7083,-0.094524,-0.16793,1.0438,-0.11405,-0.28094,-0.3992,0.84396,-1.0419,-1.1151,-0.14592,0.080421,-0.32085,0.30903,-0.19910999999999998,-0.43865,-0.15909,-1.0732,0.19885999999999998,0.37885,0.010478,0.086826,0.089081,-1.4753,0.48891999999999997,-0.25989,-0.16826,0.11673,0.50149,-0.5556800000000001,-0.24129,-0.19091,0.28808,-0.40671,0.30576,-1.1831,-0.93248,0.73838,0.55162
words,0.072607,0.7088899999999999,0.42583000000000004,-0.056344000000000005,-0.27468000000000004,1.0245,-0.34179,-0.8024399999999999,-0.17076,-0.34955,-0.033893,0.15975,0.11722,0.46308,-0.21898,-0.11145,-0.25906,-0.16977,-0.6176699999999999,-0.25274,0.67205,-0.22908,-0.15565,0.008556,0.22689,-0.13908,-0.054157000000000004,0.10742,0.23514000000000002,-0.08914,0.14436,0.79394,-0.5713600000000001,-0.25193000000000004,-0.39158000000000004,-0.13934000000000002,-0.38139,-0.094135,0.26056999999999997,0.077475,-0.14822000000000002,-0.41463999999999995,0.0025563,0.044005,-0.77818,-0.15953,-0.061808,-0.39439,-0.52755,-0.62012,0.71911,-0.010981999999999999,1.1115,0.80687,-0.31538,-1.6293,0.033266000000000004,-0.063853,0.61646,-0.10547000000000001,0.3589,1.4457,-0.46421,-0.7558699999999999,0.64232,-0.16544,0.90204,0.15494000000000002,-0.028529000000000002,-0.74347,-0.5755600000000001,0.42777,0.12495999999999999,-0.93405,0.71049,0.51595,-0.014972999999999998,0.43813,-0.54513,-0.14966,0.01321,-1.4461,-0.50183,-0.7789,-1.8105,0.43226000000000003,-0.21408000000000002,-0.67476,0.5673,-0.37571,-0.306,0.63,0.11220999999999999,0.37959,-0.46608,-0.030273,-0.8495299999999999,-0.46243999999999996,-0.2651,0.5755899999999999
n't,0.15730999999999998,0.3953,0.6358600000000001,-1.0975,-0.95768,-0.013841,-0.19852999999999998,0.25418,0.36730999999999997,-0.17486,0.27685,0.31943,0.30078,0.068531,-0.15917,-0.21944,0.064097,0.84745,-0.6198899999999999,0.54173,0.27921,0.50383,0.02146,-0.20571,0.07799400000000001,0.32229,-0.49183000000000004,-1.1411,0.23333,-0.5435800000000001,0.092285,0.8686,0.069127,0.19229000000000002,0.28374,0.46013999999999994,-0.2832,0.45383999999999997,0.35209,-0.49173,-0.14770999999999998,-0.071767,-0.24355,-0.63089,-0.67797,-0.13164,0.35974,-0.75292,0.038204,-1.7695,0.18893,-0.18872,-0.20268,0.8309,0.07787000000000001,-2.6213,0.081941,0.27262,1.6216,0.86166,-0.21581999999999998,1.0098,-0.78122,-0.11663,1.0629,0.1583,1.1009,0.70324,-0.6048100000000001,-0.45907,0.079862,-0.6179399999999999,-0.09389600000000001,-0.50363,-0.12217,-0.0017856999999999999,-0.032235,-0.1059,-0.6923199999999999,0.076485,0.6038399999999999,-0.56075,-0.96372,-0.07019199999999999,-2.0788,-0.56423,0.17574,-0.024961,-0.45348999999999995,-0.39287,-0.080573,-0.37634,0.035082999999999996,-0.39662,-0.76165,0.15113,-0.13033,-0.28513,0.19852999999999998,0.67464
help,-0.2272,0.41578000000000004,0.035985,-0.22895,0.13480999999999999,-0.12407,-0.56653,-0.32095999999999997,0.16222999999999999,-0.024273,-0.033683,-0.4281,-0.043623,-0.18682,-0.29002,-0.2464,0.51505,-0.27678,-0.9769100000000001,0.6466,-0.2955,-0.34955,0.0085932,0.17147,-0.24341,0.018099,-0.57991,-0.68634,0.29723,-0.19539,-0.39285,0.55418,-0.11855,0.40271,-0.24441,0.13792000000000001,0.14396,0.15116,0.19257,-0.095074,-0.59663,-0.27685,-0.43814,-0.9894700000000001,-0.52515,0.5200600000000001,-0.4445,-0.23365999999999998,-0.21019000000000002,-0.9059,-0.78404,0.11093,0.09208,1.2145,0.52067,-2.4821,-0.17693,-0.9413600000000001,1.8578,0.17312,-0.32761,0.45066999999999996,-0.09235299999999999,0.11200999999999998,0.50869,0.5274300000000001,-0.07520299999999999,0.7351800000000001,0.40715999999999997,-0.74727,0.60342,-0.69189,-0.56087,-0.8725200000000001,0.5694899999999999,0.35641999999999996,-0.25138,0.37888,-0.6802199999999999,0.19444,0.92435,0.5161,-0.62632,-0.16946,-1.825,0.23406,0.31977,0.76773,-0.83824,-0.38335,-0.037695,-0.053895000000000005,0.1697,-0.97895,-0.5481,-0.25664000000000003,0.10314000000000001,-0.16627999999999998,0.21600000000000003,0.015172
predict,-0.62279,0.13759000000000002,0.19392,0.63672,-1.1021,-1.0413,-0.29905,-0.34753,0.010217,-0.073575,-0.15884,0.30373,0.23881999999999998,-1.1427,0.11685999999999999,0.087366,-0.20781999999999998,0.59521,0.28912,0.42872,0.21231999999999998,-0.54464,0.034263999999999996,-0.34859,-0.98605,-0.35783000000000004,-0.21126999999999999,-0.33236,0.31001,-0.53571,-0.058592,-0.12280999999999999,-0.17315999999999998,-0.057072000000000005,0.068672,0.26056999999999997,0.2437,-0.048634,0.15812,-0.36866,-0.67298,0.13011,-0.8262799999999999,-0.73559,-0.80871,-0.29546,0.8577100000000001,-0.5230199999999999,-0.8384799999999999,-0.8753200000000001,0.42318,-0.28973000000000004,0.6580199999999999,0.48491999999999996,0.57919,-1.2128,0.24015999999999998,0.17162,0.48449,0.55692,-1.0063,0.51685,-0.33113000000000004,-0.12163,0.57631,0.96804,-0.11900000000000001,0.13377999999999998,0.1996,-0.62083,0.11325,0.030831,-0.37754,-0.19314,-0.071078,-0.7987,0.065532,-0.6813,-0.22709000000000001,-0.43083999999999995,0.607,-0.090007,-1.2852,-0.29394000000000003,-1.0104,-0.97019,0.39639,0.18811,-0.29651,-0.27081,0.73959,0.6292399999999999,-0.27347,-0.588,-0.51186,-0.030780000000000002,0.025448,0.034569,0.15127000000000002,-0.28568000000000005
clean,-0.53901,0.57195,0.30012,-0.79033,0.25876,-0.06411499999999999,-0.34793,0.80455,-0.37976,1.1015,0.60598,0.12968,-0.13898,0.05495,-0.69907,-0.21550999999999998,0.49665,-0.00077842,-0.2612,-0.11819,-0.0068003000000000004,0.43777,0.32119000000000003,-0.78166,-0.40765,0.7693300000000001,-0.9265399999999999,-0.17092000000000002,-0.6745800000000001,-0.082099,0.050910000000000004,0.32619000000000004,0.019449,0.13043,0.2571,0.063848,-0.42908,-0.52437,-0.34733,0.29051,-0.01764,-0.7356699999999999,-0.1202,-0.6086600000000001,0.050713999999999995,0.5013,-0.62305,-0.1263,-0.191,-0.89976,-0.24067,-0.035038,-0.19580999999999998,0.9237700000000001,-0.20024,-1.9611,0.39751,0.5876399999999999,1.4551,-0.43615,-0.32058000000000003,-0.066096,-0.8152699999999999,0.40803,1.1871,0.47844,0.64815,-0.49271000000000004,0.066682,-1.2904,0.50342,0.4668,0.18523,0.21479,0.58123,0.18338,-0.6793,-0.14828,-0.14728,-0.26905,0.97152,0.41341999999999995,-0.49913,0.5699,-0.88812,0.36808,0.3954,0.62093,-0.71062,0.095118,0.63661,-0.50338,0.13651,-0.14406,-0.13833,0.2624,-0.56657,0.13806,0.18674000000000002,-0.11800999999999999
text,-0.49705,0.71642,0.40119,-0.05761,0.83614,0.8256,0.08963,-0.53492,0.34335,-0.27079000000000003,-0.011152,0.025207,-0.1235,0.11800999999999999,0.045312,0.73144,0.13744,-0.13084,-0.028249,-0.30789,-0.8186399999999999,-0.5451699999999999,0.25151,0.53891,0.38293,-1.0343,-0.1104,0.44977,-0.13019,0.24846999999999997,0.1048,0.19567,-0.42672,-0.37911999999999996,0.14535,-0.025532,-0.23523000000000002,-0.3638,-0.14269,0.0062071999999999995,-0.63,-0.23068000000000002,0.086461,0.22125999999999998,-0.65625,-0.55701,-0.60243,-0.13159,-0.027226,0.0044152,1.4123,1.3042,0.54118,0.33443,-0.51865,-1.8253,-0.30525,-0.32747,1.236,0.08771,0.0077930000000000004,0.36571,-0.39304,-0.79174,0.5787399999999999,-0.0025427,0.10442,0.64166,-0.1881,-0.76203,0.23008,0.30637,1.0386,-0.6984600000000001,0.31094,0.63762,-0.09997,0.16999,-0.5998399999999999,-0.89565,-0.25059000000000003,-0.93011,-0.59606,-0.32965,-1.6828,0.39102,0.65383,-1.5176,0.61748,0.0075596000000000005,0.040066000000000004,0.6080300000000001,-0.027058,0.15273,-0.16887,-0.47663999999999995,-0.61775,-0.98735,0.23776,0.39952
potentially,-0.14831,0.017006999999999998,0.5832,0.018466999999999997,0.17812999999999998,-0.40223000000000003,-0.19812000000000002,-0.27201,0.59253,-0.35627,-0.24126,0.20267000000000002,-0.27759,-0.53125,0.051392999999999994,-0.41815,-0.13484000000000002,-0.13774,0.5515,0.14174,0.30958,-0.54125,0.34508,-0.16235,-0.15477,0.20992,-0.38988,0.2164,-0.39805999999999997,0.37724,0.36308,0.27487,-0.19614,-0.83199,0.52065,-0.66582,-0.27249,-0.69794,-0.88915,0.7351800000000001,-0.20697,0.22208000000000003,0.13782,-0.94719,0.09016,0.50393,0.821,0.5078,-0.81125,-0.58838,0.9371,-0.24989,-0.19346,0.36530999999999997,-0.022028,-1.6457,0.6084,-0.51183,1.2882,0.20428,-0.67419,1.2387,0.22425,-0.24556999999999998,0.8026399999999999,-0.081374,0.6601899999999999,-0.18727,0.15999000000000002,-1.1751,-0.010435,-0.40513000000000005,-0.40144,0.54119,0.27784000000000003,-0.27701,-0.25692,-0.28426999999999997,-0.8534,0.6625800000000001,1.0127,0.14776,-0.8014600000000001,-0.15559,-1.4222,-0.34397,0.61278,0.47628000000000004,-0.34309,-0.50084,-0.12944,0.44516000000000006,0.11767999999999999,-0.6453800000000001,0.20833000000000002,0.47698999999999997,0.18838,-0.29645,0.55186,-0.2097
make,-0.33252,0.07308200000000001,0.34678000000000003,-0.51402,-0.2465,-0.19302,-0.24952,0.21636,0.047513,-0.043,-0.04666,-0.089818,-0.11834000000000001,0.38686,-0.0033615000000000003,-0.15131,0.3567,0.75659,-0.19621,0.6786800000000001,0.27862,-0.037748000000000004,0.059065999999999994,0.035084,-0.13587,-0.035028,-0.24658000000000002,-0.53655,0.37369,-0.45819,-0.47222,0.83221,-0.066929,-0.3669,0.39463000000000004,0.64431,0.081114,0.079185,-0.25348000000000004,-0.15885,-0.48075,-0.085646,-0.09908600000000001,-0.73175,-0.5717,0.0047305,0.081587,-0.41644,-0.20027999999999999,-1.1587,-0.10217000000000001,0.0078988,-0.073715,0.9818899999999999,-0.14205,-2.5327,0.31951999999999997,-0.16699999999999998,1.993,0.047356,-0.40419,0.8796700000000001,-0.28156,0.035413,0.89974,-0.19652,0.6157699999999999,0.74934,-0.31396,-1.0302,0.12434,-0.58429,-0.089311,-0.62441,0.43783,0.08618200000000001,-0.57858,-0.021869,-0.48689,0.055153999999999995,0.88025,0.12143,-0.6449,0.19987,-1.6529,-0.092651,0.31106999999999996,0.26664,-0.16642,-0.27688,0.26256999999999997,-0.1307,-0.28865999999999997,-0.8837700000000001,-0.75213,-0.5063,-0.081468,-0.46963,0.6778,0.28026999999999996
predictions,-0.40719,0.085832,0.92504,-0.089894,-0.6226,-0.78862,0.24888000000000002,-0.58915,-0.79715,0.1508,-0.00011902,0.32724000000000003,0.42831,-0.6483800000000001,0.8908200000000001,-0.016819,-0.70491,0.7500399999999999,0.71538,0.33760999999999997,-0.21245999999999998,-0.34185,0.21374,0.19124000000000002,-0.61055,-0.36734,-0.23406999999999997,0.13743,-0.52628,-0.43746,0.25616,-0.9703200000000001,-0.24379,0.15224000000000001,-0.60697,0.69153,-0.14633,-0.038863,-0.42112,-0.3283,-0.87492,0.30146999999999996,-0.68377,-0.18706,-0.22734000000000001,-0.9500799999999999,0.9415600000000001,-0.44242,-0.51162,-0.7277600000000001,0.91825,0.0019410999999999999,0.71133,0.46586000000000005,0.52446,-1.1261,0.91204,0.45241000000000003,0.19962,0.018706,-0.26911999999999997,0.22313000000000002,-0.64277,0.01151,0.21525,0.18367,-0.6301,-0.25532,0.016596,-0.70115,-0.16593,0.5917,-0.33939,-0.43345,-0.43158,-0.26795,0.50636,-0.13032,-0.84191,-0.30418,0.73801,0.15938,-1.2251,-0.14128,-1.0088,-0.9214200000000001,-0.24326,-0.071085,-0.19952999999999999,-0.065176,0.6831699999999999,0.95049,-0.29089,-0.3345,-0.52287,-0.17849,-0.45523,0.06786,0.3112,0.24575999999999998
better,-0.047543,0.5191399999999999,0.34284000000000003,-0.09606,-0.4474,-0.3707,-0.12871,-0.5032800000000001,-0.26129,-0.09083200000000001,-0.060988,-0.36865,0.21908000000000002,-0.35645,0.32993,-0.29609,-0.018272999999999998,0.16066,-0.35906,0.67961,0.13921,0.12728,-0.097452,-0.15845,-0.24286,-0.26502,-0.41235,-1.0086,-0.055265999999999996,0.051596,-0.24647,0.69692,-0.010223999999999999,-0.14127,0.9592200000000001,0.40876,-0.54785,0.3935,-0.090709,-0.22418000000000002,0.0491,-0.34819,-0.044169,-0.42278000000000004,-0.63473,0.070979,0.13305,-0.5402,-0.013333000000000001,-1.6006,-0.39543,-0.17326,-0.23690999999999998,1.3752,0.20951,-2.4743,0.48555,0.20272,1.5026,-0.11918,-0.29868,0.6899,-0.87974,-0.041267,0.5897899999999999,0.13067,0.30467,0.3365,0.21907,-0.17314000000000002,0.22645,-0.18273,0.15125999999999998,-0.44416000000000005,0.66597,0.03561,-0.36268,-0.2546,-0.062423,-0.13725,0.53822,0.22712,-1.0619,0.1651,-1.8325,0.17062,0.18547,-0.15742,-0.83444,-0.32558000000000004,0.41771,-0.31883,0.1094,-0.43583999999999995,-0.5451,0.074827,-0.1703,-0.26859,0.48665,0.55609
